svm_type c_svc
kernel_type rbf
gamma 0.0078125
nr_class 2
total_sv 888
rho 1
label 1 2
nr_sv 444 444
SV
0.03125 
0.03125 
0.03125 
0.03125 
0.03125 
0.03125 
0.03125 
0.03125 
0.03125 
0.03125 
0.03125 
0.03125 
0.03125 
0.03125 
0.03125 
0.03125 
0.03125 
0.03125 
0.03125 
0.03125 
0.03125 
0.03125 
0.03125 
0.03125 
0.03125 
0.03125 
0.03125 
0.03125 
0.03125 
0.03125 
0.03125 
0.03125 
0.03125 
0.03125 
0.03125 
0.03125 
0.03125 
0.03125 
0.03125 
0.03125 
0.03125 
0.03125 
0.03125 
0.03125 
0.03125 
0.03125 
0.03125 
0.03125 
0.03125 
0.03125 
0.03125 
0.03125 
0.03125 
0.03125 
0.03125 
0.03125 
0.03125 
0.03125 
0.03125 
0.03125 
0.03125 
0.03125 
0.03125 
0.03125 
0.03125 
0.03125 
0.03125 
0.03125 
0.03125 
0.03125 
0.03125 
0.03125 
0.03125 
0.03125 
0.03125 
0.03125 
0.03125 
0.03125 
0.03125 
0.03125 
0.03125 
0.03125 
0.03125 
0.03125 
0.03125 
0.03125 
0.03125 
0.03125 
0.03125 
0.03125 
0.03125 
0.03125 
0.03125 
0.03125 
0.03125 
0.03125 
0.03125 
0.03125 
0.03125 
0.03125 
0.03125 
0.03125 
0.03125 
0.03125 
0.03125 
0.03125 
0.03125 
0.03125 
0.03125 
0.03125 
0.03125 
0.03125 
0.03125 
0.03125 
0.03125 
0.03125 
0.03125 
0.03125 
0.03125 
0.03125 
0.03125 
0.03125 
0.03125 
0.03125 
0.03125 
0.03125 
0.03125 
0.03125 
0.03125 
0.03125 
0.03125 
0.03125 
0.03125 
0.03125 
0.03125 
0.03125 
0.03125 
0.03125 
0.03125 
0.03125 
0.03125 
0.03125 
0.03125 
0.03125 
0.03125 
0.03125 
0.03125 
0.03125 
0.03125 
0.03125 
0.03125 
0.03125 
0.03125 
0.03125 
0.03125 
0.03125 
0.03125 
0.03125 
0.03125 
0.03125 
0.03125 
0.03125 
0.03125 
0.03125 
0.03125 
0.03125 
0.03125 
0.03125 
0.03125 
0.03125 
0.03125 
0.03125 
0.03125 
0.03125 
0.03125 
0.03125 
0.03125 
0.03125 
0.03125 
0.03125 
0.03125 
0.03125 
0.03125 
0.03125 
0.03125 
0.03125 
0.03125 
0.03125 
0.03125 
0.03125 
0.03125 
0.03125 
0.03125 
0.03125 
0.03125 
0.03125 
0.03125 
0.03125 
0.03125 
0.03125 
0.03125 
0.03125 
0.03125 
0.03125 
0.03125 
0.03125 
0.03125 
0.03125 
0.03125 
0.03125 
0.03125 
0.03125 
0.03125 
0.03125 
0.03125 
0.03125 
0.03125 
0.03125 
0.03125 
0.03125 
0.03125 
0.03125 
0.03125 
0.03125 
0.03125 
0.03125 
0.03125 
0.03125 
0.03125 
0.03125 
0.03125 
0.03125 
0.03125 
0.03125 
0.03125 
0.03125 
0.03125 
0.03125 
0.03125 
0.03125 
0.03125 
0.03125 
0.03125 
0.03125 
0.03125 
0.03125 
0.03125 
0.03125 
0.03125 
0.03125 
0.03125 
0.03125 
0.03125 
0.03125 
0.03125 
0.03125 
0.03125 
0.03125 
0.03125 
0.03125 
0.03125 
0.03125 
0.03125 
0.03125 
0.03125 
0.03125 
0.03125 
0.03125 
0.03125 
0.03125 
0.03125 
0.03125 
0.03125 
0.03125 
0.03125 
0.03125 
0.03125 
0.03125 
0.03125 
0.03125 
0.03125 
0.03125 
0.03125 
0.03125 
0.03125 
0.03125 
0.03125 
0.03125 
0.03125 
0.03125 
0.03125 
0.03125 
0.03125 
0.03125 
0.03125 
0.03125 
0.03125 
0.03125 
0.03125 
0.03125 
0.03125 
0.03125 
0.03125 
0.03125 
0.03125 
0.03125 
0.03125 
0.03125 
0.03125 
0.03125 
0.03125 
0.03125 
0.03125 
0.03125 
0.03125 
0.03125 
0.03125 
0.03125 
0.03125 
0.03125 
0.03125 
0.03125 
0.03125 
0.03125 
0.03125 
0.03125 
0.03125 
0.03125 
0.03125 
0.03125 
0.03125 
0.03125 
0.03125 
0.03125 
0.03125 
0.03125 
0.03125 
0.03125 
0.03125 
0.03125 
0.03125 
0.03125 
0.03125 
0.03125 
0.03125 
0.03125 
0.03125 
0.03125 
0.03125 
0.03125 
0.03125 
0.03125 
0.03125 
0.03125 
0.03125 
0.03125 
0.03125 
0.03125 
0.03125 
0.03125 
0.03125 
0.03125 
0.03125 
0.03125 
0.03125 
0.03125 
0.03125 
0.03125 
0.03125 
0.03125 
0.03125 
0.03125 
0.03125 
0.03125 
0.03125 
0.03125 
0.03125 
0.03125 
0.03125 
0.03125 
0.03125 
0.03125 
0.03125 
0.03125 
0.03125 
0.03125 
0.03125 
0.03125 
0.03125 
0.03125 
0.03125 
0.03125 
0.03125 
0.03125 
0.03125 
0.03125 
0.03125 
0.03125 
0.03125 
0.03125 
0.03125 
0.03125 
0.03125 
0.03125 
0.03125 
0.03125 
0.03125 
0.03125 
0.03125 
0.03125 
0.03125 
0.03125 
0.03125 
0.03125 
0.03125 
0.03125 
0.03125 
0.03125 
0.03125 
0.03125 
0.03125 
0.03125 
0.03125 
0.03125 
0.03125 
0.03125 
0.03125 
0.03125 
0.03125 
0.03125 
0.03125 
0.03125 
0.03125 
0.03125 
0.03125 
0.03125 
0.03125 
0.03125 
0.03125 
0.03125 
0.03125 
0.03125 
0.03125 
0.03125 
-0.03125 
-0.03125 
-0.03125 
-0.03125 
-0.03125 
-0.03125 
-0.03125 
-0.03125 
-0.03125 
-0.03125 
-0.03125 
-0.03125 
-0.03125 
-0.03125 
-0.03125 
-0.03125 
-0.03125 
-0.03125 
-0.03125 
-0.03125 
-0.03125 
-0.03125 
-0.03125 
-0.03125 
-0.03125 
-0.03125 
-0.03125 
-0.03125 
-0.03125 
-0.03125 
-0.03125 
-0.03125 
-0.03125 
-0.03125 
-0.03125 
-0.03125 
-0.03125 
-0.03125 
-0.03125 
-0.03125 
-0.03125 
-0.03125 
-0.03125 
-0.03125 
-0.03125 
-0.03125 
-0.03125 
-0.03125 
-0.03125 
-0.03125 
-0.03125 
-0.03125 
-0.03125 
-0.03125 
-0.03125 
-0.03125 
-0.03125 
-0.03125 
-0.03125 
-0.03125 
-0.03125 
-0.03125 
-0.03125 
-0.03125 
-0.03125 
-0.03125 
-0.03125 
-0.03125 
-0.03125 
-0.03125 
-0.03125 
-0.03125 
-0.03125 
-0.03125 
-0.03125 
-0.03125 
-0.03125 
-0.03125 
-0.03125 
-0.03125 
-0.03125 
-0.03125 
-0.03125 
-0.03125 
-0.03125 
-0.03125 
-0.03125 
-0.03125 
-0.03125 
-0.03125 
-0.03125 
-0.03125 
-0.03125 
-0.03125 
-0.03125 
-0.03125 
-0.03125 
-0.03125 
-0.03125 
-0.03125 
-0.03125 
-0.03125 
-0.03125 
-0.03125 
-0.03125 
-0.03125 
-0.03125 
-0.03125 
-0.03125 
-0.03125 
-0.03125 
-0.03125 
-0.03125 
-0.03125 
-0.03125 
-0.03125 
-0.03125 
-0.03125 
-0.03125 
-0.03125 
-0.03125 
-0.03125 
-0.03125 
-0.03125 
-0.03125 
-0.03125 
-0.03125 
-0.03125 
-0.03125 
-0.03125 
-0.03125 
-0.03125 
-0.03125 
-0.03125 
-0.03125 
-0.03125 
-0.03125 
-0.03125 
-0.03125 
-0.03125 
-0.03125 
-0.03125 
-0.03125 
-0.03125 
-0.03125 
-0.03125 
-0.03125 
-0.03125 
-0.03125 
-0.03125 
-0.03125 
-0.03125 
-0.03125 
-0.03125 
-0.03125 
-0.03125 
-0.03125 
-0.03125 
-0.03125 
-0.03125 
-0.03125 
-0.03125 
-0.03125 
-0.03125 
-0.03125 
-0.03125 
-0.03125 
-0.03125 
-0.03125 
-0.03125 
-0.03125 
-0.03125 
-0.03125 
-0.03125 
-0.03125 
-0.03125 
-0.03125 
-0.03125 
-0.03125 
-0.03125 
-0.03125 
-0.03125 
-0.03125 
-0.03125 
-0.03125 
-0.03125 
-0.03125 
-0.03125 
-0.03125 
-0.03125 
-0.03125 
-0.03125 
-0.03125 
-0.03125 
-0.03125 
-0.03125 
-0.03125 
-0.03125 
-0.03125 
-0.03125 
-0.03125 
-0.03125 
-0.03125 
-0.03125 
-0.03125 
-0.03125 
-0.03125 
-0.03125 
-0.03125 
-0.03125 
-0.03125 
-0.03125 
-0.03125 
-0.03125 
-0.03125 
-0.03125 
-0.03125 
-0.03125 
-0.03125 
-0.03125 
-0.03125 
-0.03125 
-0.03125 
-0.03125 
-0.03125 
-0.03125 
-0.03125 
-0.03125 
-0.03125 
-0.03125 
-0.03125 
-0.03125 
-0.03125 
-0.03125 
-0.03125 
-0.03125 
-0.03125 
-0.03125 
-0.03125 
-0.03125 
-0.03125 
-0.03125 
-0.03125 
-0.03125 
-0.03125 
-0.03125 
-0.03125 
-0.03125 
-0.03125 
-0.03125 
-0.03125 
-0.03125 
-0.03125 
-0.03125 
-0.03125 
-0.03125 
-0.03125 
-0.03125 
-0.03125 
-0.03125 
-0.03125 
-0.03125 
-0.03125 
-0.03125 
-0.03125 
-0.03125 
-0.03125 
-0.03125 
-0.03125 
-0.03125 
-0.03125 
-0.03125 
-0.03125 
-0.03125 
-0.03125 
-0.03125 
-0.03125 
-0.03125 
-0.03125 
-0.03125 
-0.03125 
-0.03125 
-0.03125 
-0.03125 
-0.03125 
-0.03125 
-0.03125 
-0.03125 
-0.03125 
-0.03125 
-0.03125 
-0.03125 
-0.03125 
-0.03125 
-0.03125 
-0.03125 
-0.03125 
-0.03125 
-0.03125 
-0.03125 
-0.03125 
-0.03125 
-0.03125 
-0.03125 
-0.03125 
-0.03125 
-0.03125 
-0.03125 
-0.03125 
-0.03125 
-0.03125 
-0.03125 
-0.03125 
-0.03125 
-0.03125 
-0.03125 
-0.03125 
-0.03125 
-0.03125 
-0.03125 
-0.03125 
-0.03125 
-0.03125 
-0.03125 
-0.03125 
-0.03125 
-0.03125 
-0.03125 
-0.03125 
-0.03125 
-0.03125 
-0.03125 
-0.03125 
-0.03125 
-0.03125 
-0.03125 
-0.03125 
-0.03125 
-0.03125 
-0.03125 
-0.03125 
-0.03125 
-0.03125 
-0.03125 
-0.03125 
-0.03125 
-0.03125 
-0.03125 
-0.03125 
-0.03125 
-0.03125 
-0.03125 
-0.03125 
-0.03125 
-0.03125 
-0.03125 
-0.03125 
-0.03125 
-0.03125 
-0.03125 
-0.03125 
-0.03125 
-0.03125 
-0.03125 
-0.03125 
-0.03125 
-0.03125 
-0.03125 
-0.03125 
-0.03125 
-0.03125 
-0.03125 
-0.03125 
-0.03125 
-0.03125 
-0.03125 
-0.03125 
-0.03125 
-0.03125 
-0.03125 
-0.03125 
-0.03125 
-0.03125 
-0.03125 
-0.03125 
-0.03125 
-0.03125 
-0.03125 
-0.03125 
-0.03125 
-0.03125 
-0.03125 
-0.03125 
-0.03125 
-0.03125 
-0.03125 
-0.03125 
-0.03125 
-0.03125 
-0.03125 
-0.03125 
-0.03125 
-0.03125 
-0.03125 
-0.03125 
-0.03125 
-0.03125 
-0.03125 
-0.03125 
-0.03125 
-0.03125 
-0.03125 
-0.03125 
-0.03125 
-0.03125 
-0.03125 
-0.03125 
-0.03125 
-0.03125 
-0.03125 
-0.03125 
-0.03125 
-0.03125 
-0.03125 
-0.03125 
-0.03125 
-0.03125 
-0.03125 
-0.03125 
-0.03125 
-0.03125 
-0.03125 
-0.03125 
-0.03125 
-0.03125 
-0.03125 
-0.03125 
-0.03125 
-0.03125 
-0.03125 
-0.03125 
-0.03125 
-0.03125 
-0.03125 
