svm_type c_svc
kernel_type rbf
gamma 0.0078125
nr_class 3
total_sv 17
rho -0.308866 -0.0375309 -3.82235
label 1 2 3
nr_sv 2 7 8
SV
96.12493580344317 41.56914858089801 1:-0.555556 2:0.0833333 3:-0.762712 4:-0.666667 
90.37440319200789 16.05813830348026 1:-0.888889 2:-0.75 3:-0.898305 4:-0.833333 
-0 1763.807923326631 1:0.0555556 2:-0.833333 3:0.186441 4:0.166667 
-0 2048 1:-0.111111 3:0.288136 4:0.416667 
-0 2048 1:0.111111 2:-0.583333 3:0.322034 4:0.166667 
-0 2048 1:0.333333 2:-0.166667 3:0.355932 4:0.333333 
-0 2048 1:-0.0555556 2:-0.416667 3:0.389831 4:0.25 
-0 972.9886325223742 1:-0.388889 2:-0.166667 3:0.186441 4:0.166667 
-186.499338995451 0 1:-0.555556 2:-0.583333 3:-0.322034 4:-0.166667 
-49.74060998448984 -0 1:-0.666667 2:-0.583333 3:0.186441 4:0.333333 
-0 -2048 1:-0.0555556 2:-0.833333 3:0.355932 4:0.166667 
-0 -2048 1:0.0555556 2:-0.333333 3:0.288136 4:0.416667 
-0 -1946.617014552146 1:-2.22045e-16 2:-0.166667 3:0.322034 4:0.416667 
-0 -81.76379646792385 1:0.611111 2:-0.166667 3:0.627119 4:0.25 
-7.88667689988842 -2048 1:0.111111 2:-0.333333 3:0.389831 4:0.166667 
-0 -708.4157448289355 1:-2.22045e-16 2:-0.5 3:0.559322 4:0.0833333 
-0 -2048 1:-0.0555556 2:-0.166667 3:0.288136 4:0.416667 
